// Auto-generated neural network weights
// Architecture: Input(5) -> Dense(32) -> Dense(32) -> Output(10)
// Features: temp_ext, humidity, season_sin, season_cos, time_sin
// Total parameters: 1578
// Generated: 2025-11-30 21:29:52

#ifndef NEURAL_WEIGHTS_H
#define NEURAL_WEIGHTS_H

// Configuration
#define NUM_ROOMS 10

// Layer 0: Input(5) -> Dense(32)
const float W0[5][32] = {
  {-0.015603f, 0.089653f, 0.215406f, -0.117672f, -0.375586f, -0.299044f, -0.117313f, 0.297461f, 0.068015f, -0.227683f, 0.314404f, -0.141721f, 0.372221f, -0.003128f, -0.286172f, -0.245433f, 0.104191f, -0.318626f, 0.340723f, -0.218607f, 0.209972f, 0.052308f, 0.066607f, -0.002900f, 0.324523f, 0.005492f, -0.258248f, -0.048092f, -0.115616f, -0.058758f, 0.164477f, 0.147800f},  // Input feature 0
  {-0.003329f, -0.012213f, -0.258792f, 0.135488f, -0.280540f, -0.372820f, -0.007649f, -0.214712f, 0.236771f, 0.086579f, 0.176721f, 0.074264f, -0.380711f, -0.112408f, 0.161942f, 0.227972f, -0.359147f, 0.101884f, -0.400556f, -0.235568f, -0.149976f, -0.201617f, 0.281405f, -0.014100f, -0.357444f, -0.014860f, -0.231268f, 0.276473f, 0.002301f, 0.274893f, -0.077874f, 0.188579f},  // Input feature 1
  {0.074466f, -3.226995f, -0.111657f, 0.233647f, -0.315379f, -0.216474f, -1.265169f, 0.180712f, 0.351409f, -0.272179f, 0.061592f, 1.636787f, 0.295458f, 0.070645f, 0.692908f, 0.761052f, 0.356152f, 2.386161f, 0.305581f, 0.136396f, 0.084843f, -0.112395f, 0.729859f, -0.200178f, -0.030074f, 0.387334f, 0.260863f, 0.674320f, 0.310930f, 0.210688f, 1.871500f, -0.225947f},  // Input feature 2
  {-2.003488f, 0.617779f, -0.073979f, -1.893142f, -0.097904f, -0.375868f, -1.966402f, 0.439449f, -2.039809f, 2.899468f, -2.130776f, 2.287256f, 0.242022f, -0.115060f, -1.617416f, -1.549322f, -0.257447f, 0.110761f, 0.123616f, -0.186257f, 0.045107f, -0.078261f, -1.800648f, -3.297317f, 0.066975f, -0.467582f, -0.167023f, -1.715183f, -1.001947f, -1.500573f, 0.662406f, -1.898983f},  // Input feature 3
  {-0.154835f, 0.115594f, 0.112743f, -0.224488f, -0.131932f, -0.270252f, -1.302675f, 0.256099f, -0.691525f, -0.631606f, -0.715138f, -2.005595f, 0.011339f, 0.279477f, 0.067068f, -0.619847f, 0.100265f, 2.017593f, 0.230681f, -0.320722f, 0.121353f, -0.035299f, -0.228337f, 0.415816f, 0.019526f, -0.055086f, 0.271064f, -0.608751f, -0.160795f, -0.735142f, 1.416617f, -0.260320f},  // Input feature 4
};

const float BIAS0[32] = {
  -0.031622f, -0.297203f, 0.000000f, 0.021131f, 0.000000f, 0.000000f, -0.289054f, -0.070819f, -0.155447f, 0.136836f, -0.033224f, 0.035609f, 0.000000f, 0.000000f, 0.021617f, -0.001793f, 0.000000f, 0.119839f, 0.000000f, 0.000000f, 0.000000f, 0.000000f, -0.083681f, -0.189344f, 0.000000f, -0.130128f, 0.000000f, 0.067017f, -0.282787f, -0.120050f, -0.247162f, -0.122782f
};

// Layer 1: Dense(32) -> Dense(32)
const float W1[32][32] = {
  {-0.253428f, 0.128296f, -0.289101f, -0.123572f, 0.015219f, -0.080084f, 0.172880f, -0.027866f, -0.118415f, -0.194326f, 0.009474f, 0.107698f, 0.042290f, 0.054424f, -0.205797f, -0.043278f, 0.137666f, 0.018375f, -0.057096f, -0.299354f, 0.068516f, -0.188955f, 0.219549f, 0.083314f, -0.146300f, -0.048143f, 0.547127f, 0.107163f, -0.083627f, -0.099515f, -0.266230f, 0.253337f},
  {0.209367f, -0.159355f, 0.149176f, 0.039054f, 0.048348f, 0.011714f, 0.157519f, -0.062113f, -0.004547f, 0.057609f, -0.299201f, -0.207949f, 0.061978f, 0.141864f, 0.009547f, -0.073960f, -0.227018f, -0.132162f, 0.207682f, -0.149501f, -0.006068f, 0.455282f, -0.371643f, -1.936056f, -0.038853f, 0.182821f, 0.253517f, -0.195109f, 0.274711f, 0.138041f, -0.160480f, -0.326437f},
  {0.172817f, 0.153531f, 0.240870f, 0.097974f, 0.047448f, 0.247545f, 0.219812f, -0.016515f, -0.191658f, -0.038949f, 0.178349f, -0.204599f, 0.113452f, 0.210076f, 0.116360f, 0.082507f, -0.076098f, -0.220520f, -0.170001f, -0.016379f, 0.215274f, -0.248113f, -0.107341f, -0.107149f, 0.275043f, -0.008335f, 0.056597f, 0.127966f, 0.281837f, 0.196258f, -0.147423f, -0.074313f},
  {-0.255732f, 0.151423f, 0.027157f, 0.254873f, 0.278102f, -0.008796f, -0.055961f, -0.014392f, 0.092522f, -0.279313f, 0.185919f, -0.062926f, -0.308932f, 0.167005f, 0.007771f, -0.109673f, -0.218486f, -0.054186f, 0.227218f, -0.009079f, -0.272930f, 0.026768f, 0.109642f, 0.002278f, -0.172485f, -0.186570f, 0.055874f, -0.300316f, 0.142502f, -0.228629f, 0.041725f, -0.047047f},
  {0.275622f, -0.287276f, 0.192614f, -0.117941f, -0.019350f, -0.182686f, -0.154563f, -0.076555f, 0.051987f, -0.285645f, 0.093656f, 0.036388f, 0.059075f, -0.013647f, 0.161724f, -0.224730f, 0.098339f, 0.219416f, -0.105955f, -0.019661f, -0.129078f, 0.009034f, -0.293935f, 0.190921f, 0.112839f, -0.017137f, -0.100529f, -0.104545f, -0.245524f, 0.190609f, -0.275110f, -0.212196f},
  {0.101336f, -0.196638f, -0.196041f, -0.015867f, 0.013547f, 0.246419f, 0.107095f, -0.152693f, 0.217653f, -0.228379f, 0.281808f, 0.055543f, -0.214431f, 0.274748f, -0.126004f, -0.259999f, -0.109006f, -0.121779f, -0.139397f, 0.022145f, -0.181972f, -0.102023f, 0.231373f, 0.045050f, -0.216936f, -0.128007f, 0.128755f, -0.048348f, 0.258400f, 0.021869f, -0.245949f, -0.249878f},
  {-0.327481f, -0.631301f, 1.118451f, -0.405825f, -0.462729f, 0.158191f, 0.044758f, -0.214905f, -0.008425f, 0.123519f, -0.259294f, 0.061726f, -0.317896f, 0.150462f, 0.218633f, -0.432165f, 0.035224f, -0.269840f, -0.127025f, -0.315010f, -0.166151f, -0.405718f, -0.158882f, -0.108356f, 0.219224f, 0.002801f, -0.180702f, -0.118380f, 0.234687f, -0.306318f, -0.212635f, 0.203094f},
  {0.158400f, -0.128095f, 0.261947f, 0.352176f, -0.194645f, 0.082763f, -0.324207f, -0.013587f, -0.075116f, 0.225090f, -0.055092f, -0.124220f, -0.057153f, 0.086727f, -0.057566f, 0.305828f, -0.222512f, -0.155087f, 0.295146f, 0.042472f, 0.014700f, -0.101574f, 0.052689f, -0.012090f, 0.148828f, -0.084695f, -0.041763f, 0.020916f, 0.031249f, -0.121143f, -0.133117f, -0.279767f},
  {0.050276f, -0.037319f, -0.232759f, 0.151626f, 0.324799f, -0.021291f, -0.128027f, 0.122279f, -0.323850f, -0.089647f, 0.205635f, -0.216605f, 0.171703f, -0.063157f, -0.130426f, 0.263809f, -0.152360f, 0.164649f, 0.320688f, -0.261395f, -0.093686f, -0.027797f, -0.214737f, 0.093160f, -0.151374f, -0.199280f, -0.002419f, -0.268686f, -0.106096f, -0.089244f, -0.244942f, -0.117420f},
  {0.172939f, 0.426508f, -0.508183f, 0.212327f, 0.203246f, -0.054253f, 0.256691f, -0.211346f, 0.065684f, -0.133237f, -0.076834f, -0.098555f, -0.198967f, -0.052229f, -0.231575f, 0.211541f, -0.253193f, 0.125144f, 0.355122f, -0.038629f, 0.038982f, 0.198098f, 0.210209f, -1.064001f, 0.288450f, -0.059542f, -0.260280f, -0.145248f, -0.296000f, 0.188701f, -0.075313f, 0.123452f},
  {-0.357320f, 0.283865f, -0.039337f, 0.359537f, 0.018704f, -0.169098f, 0.007778f, 0.110625f, 0.162673f, 0.216429f, -0.267754f, -0.278791f, 0.122420f, -0.294170f, 0.059673f, 0.252458f, 0.272813f, -0.164879f, 0.289870f, -0.050673f, -0.220038f, -0.183340f, -0.299929f, 0.009322f, 0.149862f, -0.213108f, 0.358463f, -0.205323f, 0.214437f, 0.157465f, -0.160193f, 0.249203f},
  {0.012459f, 0.108133f, -0.720608f, 0.327693f, 0.081269f, 0.085729f, -0.301860f, -0.016621f, 0.019823f, -0.117240f, -0.149077f, 0.254386f, 0.148123f, -0.303560f, -0.201685f, 0.190604f, -0.030411f, 0.354208f, 0.394856f, 0.250348f, -0.026594f, -0.075422f, 0.090169f, -0.087913f, 0.194218f, -0.272468f, -1.619745f, 0.017034f, -0.059472f, 0.221067f, -0.253478f, 0.137023f},
  {0.161200f, -0.055594f, 0.159191f, 0.191170f, 0.112331f, 0.277534f, 0.124430f, -0.134415f, 0.283808f, -0.113111f, -0.211779f, -0.065006f, -0.159032f, 0.200864f, 0.092707f, -0.164832f, 0.115708f, -0.253336f, 0.182868f, 0.145532f, 0.172971f, -0.201876f, 0.055226f, 0.086789f, -0.114418f, -0.203246f, -0.137402f, -0.098173f, -0.163298f, 0.233431f, -0.013439f, -0.235417f},
  {0.095685f, -0.232500f, 0.207228f, 0.165939f, 0.083890f, -0.080888f, -0.267483f, -0.161392f, 0.064375f, 0.062209f, -0.232379f, -0.135062f, 0.185723f, -0.285439f, 0.293328f, -0.067621f, 0.141583f, 0.114964f, 0.244902f, -0.253863f, 0.138287f, 0.192596f, 0.247251f, -0.246585f, 0.023334f, -0.196748f, -0.286592f, 0.044544f, -0.165673f, -0.102695f, 0.219380f, 0.168955f},
  {0.155541f, 0.172567f, 0.216223f, 0.079319f, -0.265105f, -0.242419f, -0.330779f, 0.026457f, -0.044295f, -0.230260f, 0.247442f, -0.086886f, -0.220126f, 0.048335f, 0.020046f, 0.351928f, -0.225156f, -0.104611f, 0.305871f, 0.008676f, -0.119976f, 0.300514f, 0.167082f, -0.505899f, -0.217698f, -0.036598f, -0.507914f, -0.148842f, 0.108459f, -0.223684f, -0.161235f, -0.319321f},
  {0.174373f, 0.388844f, 0.276554f, 0.332043f, 0.267729f, 0.053612f, 0.035097f, -0.312452f, 0.019442f, -0.204259f, 0.194984f, 0.128563f, -0.189808f, 0.010271f, -0.178040f, 0.193818f, -0.165661f, -0.090300f, -0.055938f, 0.225647f, 0.155893f, -0.170878f, 0.142758f, 0.155802f, 0.123809f, -0.017770f, -0.423721f, -0.132836f, -0.040484f, -0.147525f, 0.153585f, 0.027576f},
  {-0.082905f, -0.258675f, -0.000289f, -0.053773f, -0.239613f, 0.188922f, 0.150181f, 0.036099f, -0.169841f, -0.035432f, -0.182348f, -0.190809f, -0.047878f, 0.282524f, 0.060471f, -0.137060f, -0.274910f, 0.148495f, -0.279221f, -0.177302f, -0.230064f, 0.245433f, 0.159412f, -0.105504f, -0.100900f, -0.175627f, 0.046183f, 0.035130f, 0.161960f, 0.170704f, 0.174025f, 0.145743f},
  {-0.171769f, -0.526246f, -0.098671f, -0.196984f, -0.256931f, -0.070812f, -0.210895f, 0.254636f, 0.031387f, -0.277016f, -0.205169f, -0.214474f, -0.286518f, -0.112283f, -0.142201f, -0.225371f, -0.293177f, -0.331498f, -0.288602f, -0.341865f, 0.021748f, -0.333180f, 0.155518f, 0.518707f, -0.272633f, -0.118705f, -0.181698f, 0.221900f, 0.048748f, 0.020448f, -0.262813f, -0.261165f},
  {0.278010f, 0.087922f, 0.272549f, -0.245847f, -0.246371f, 0.071241f, -0.141863f, 0.042123f, 0.185624f, -0.152153f, -0.173538f, 0.010702f, 0.189599f, -0.222674f, -0.272793f, 0.296547f, 0.237906f, 0.288878f, -0.250550f, -0.012513f, 0.238296f, -0.258324f, 0.196517f, -0.046344f, 0.299157f, -0.070181f, -0.048689f, 0.249198f, -0.073148f, 0.113940f, -0.062223f, 0.201503f},
  {0.179350f, 0.049816f, 0.076813f, -0.022163f, -0.248177f, 0.190651f, 0.078842f, 0.100195f, 0.060074f, -0.096455f, 0.192396f, -0.022572f, 0.215719f, 0.159506f, 0.183849f, -0.008069f, -0.258873f, -0.132760f, -0.184334f, -0.106243f, 0.147942f, -0.122116f, 0.301381f, 0.033656f, 0.181843f, 0.046487f, -0.135209f, -0.280858f, -0.130086f, -0.033199f, 0.227641f, 0.283593f},
  {-0.055766f, 0.288803f, -0.292395f, -0.295171f, -0.012959f, -0.095103f, 0.068753f, 0.095335f, -0.066435f, -0.102512f, 0.267193f, -0.303654f, -0.197996f, -0.099195f, -0.291069f, -0.206617f, 0.294542f, 0.301001f, -0.163994f, 0.031342f, 0.014243f, -0.070188f, -0.175585f, -0.162399f, 0.008645f, -0.063064f, 0.251628f, 0.078183f, -0.066513f, -0.077210f, -0.243770f, 0.032852f},
  {-0.194430f, -0.000856f, 0.009815f, 0.111731f, 0.228912f, -0.215206f, 0.163251f, -0.252680f, -0.169838f, 0.300867f, -0.296917f, -0.080163f, -0.010810f, -0.195603f, 0.209019f, -0.252094f, -0.294032f, 0.163403f, -0.219805f, -0.263161f, 0.207382f, -0.021479f, 0.170151f, -0.066562f, -0.284248f, -0.139260f, 0.072233f, 0.005453f, -0.242109f, -0.259446f, -0.115170f, -0.274853f},
  {-0.272528f, 0.403369f, 0.024897f, -0.121912f, 0.027479f, 0.065314f, -0.090067f, -0.081088f, 0.015275f, -0.056297f, -0.138310f, 0.228313f, -0.145842f, 0.157140f, -0.132727f, 0.264441f, -0.179511f, 0.127082f, 0.282710f, 0.240309f, 0.099822f, 0.135185f, -0.054892f, 0.251958f, -0.292704f, -0.269570f, 0.039311f, -0.026783f, -0.270818f, -0.245272f, 0.090314f, 0.087307f},
  {-0.081663f, 0.678948f, -2.773516f, 0.540402f, 0.525265f, 0.253463f, -0.280887f, 0.016636f, 0.019804f, -0.031828f, 0.238125f, -0.165220f, -0.219043f, 0.084792f, -0.238902f, 0.359821f, -0.052110f, 0.805969f, 0.724321f, -0.079966f, 0.284980f, 0.775245f, -0.337137f, 0.525367f, 0.115970f, 0.230641f, 0.837974f, -0.239095f, -0.177853f, -0.031951f, -0.249633f, -0.173339f},
  {0.123849f, 0.033924f, 0.266788f, -0.109532f, -0.221566f, 0.050903f, -0.096135f, 0.136634f, -0.246037f, 0.197125f, 0.177757f, 0.022687f, 0.149778f, 0.113679f, -0.026239f, 0.107233f, 0.005965f, -0.253290f, 0.272917f, -0.029449f, 0.241335f, -0.145460f, -0.174223f, 0.010840f, -0.151024f, -0.038374f, 0.240239f, 0.257898f, -0.038961f, -0.092588f, 0.122588f, -0.097090f},
  {-0.244536f, 0.168691f, -0.009866f, 0.045927f, 0.133651f, 0.174001f, -0.021987f, -0.144360f, -0.168782f, 0.096061f, -0.110154f, -0.248059f, -0.274540f, -0.278323f, -0.039011f, -0.125890f, -0.179105f, -0.291287f, -0.150110f, -0.172011f, -0.120972f, -0.153135f, -0.310239f, 0.285657f, -0.108299f, 0.062425f, -0.040769f, -0.163594f, -0.200802f, 0.205433f, 0.208591f, -0.212258f},
  {0.301257f, 0.114497f, -0.149768f, -0.017006f, 0.207707f, -0.195003f, -0.179119f, -0.282766f, 0.214589f, -0.016403f, 0.259482f, -0.278043f, -0.212553f, -0.027957f, 0.202685f, 0.239244f, -0.287531f, 0.142000f, -0.065919f, 0.042332f, 0.277243f, -0.117917f, 0.183839f, 0.106494f, -0.059759f, -0.069285f, -0.296192f, 0.020061f, 0.258626f, 0.177693f, 0.000101f, 0.108681f},
  {-0.020629f, 0.429045f, 0.234154f, 0.432421f, 0.417765f, 0.050619f, 0.169542f, -0.020949f, -0.323801f, -0.241375f, -0.201434f, -0.026954f, 0.002862f, 0.037380f, 0.014542f, -0.148015f, -0.051641f, -0.047574f, 0.183322f, -0.346550f, -0.171031f, -0.010372f, -0.167774f, 0.054222f, 0.177632f, 0.024461f, 0.034791f, 0.050709f, -0.281506f, -0.074764f, -0.091782f, -0.106117f},
  {-0.041084f, 0.008454f, 0.238541f, 0.111078f, -0.154129f, 0.130672f, 0.234590f, -0.154180f, -0.412828f, 0.159373f, -0.361947f, 0.069450f, 0.159732f, -0.031285f, -0.245688f, -0.089441f, -0.028764f, 0.193607f, 0.212678f, -0.135793f, 0.265185f, -0.341326f, -0.206231f, 0.021906f, -0.169015f, -0.283099f, 0.039902f, -0.130091f, -0.249254f, -0.233969f, -0.180623f, -0.015700f},
  {0.025516f, 0.179831f, -0.075710f, 0.173710f, 0.264836f, 0.047806f, -0.037869f, -0.404489f, 0.122513f, -0.033542f, -0.073956f, -0.171379f, -0.157613f, -0.295323f, -0.139653f, 0.065043f, -0.269680f, -0.265834f, 0.030471f, 0.097129f, 0.018620f, 0.019685f, -0.333967f, -0.200652f, -0.098262f, 0.295290f, -0.246055f, 0.208470f, -0.144204f, 0.227365f, 0.061585f, -0.211645f},
  {-0.317534f, 0.325823f, 1.096785f, 0.020995f, -0.017024f, 0.376664f, -0.137278f, 0.060404f, -0.192625f, 0.078606f, 0.023007f, -0.014881f, -0.297645f, -0.020528f, 0.099295f, 0.135354f, 0.233836f, -0.273336f, -0.008381f, -0.024537f, 0.196158f, 0.138873f, -0.246352f, -0.326933f, -0.085315f, -0.028422f, -1.964155f, 0.256612f, -0.120827f, -0.154927f, -0.181323f, -0.255830f},
  {-0.035951f, 0.146761f, 0.027696f, 0.255207f, 0.065955f, -0.036293f, -0.069462f, 0.179635f, 0.008677f, -0.275012f, -0.296523f, -0.242796f, 0.026289f, 0.097283f, 0.145286f, -0.061279f, 0.045698f, 0.092473f, 0.223047f, -0.062775f, -0.150148f, -0.070935f, 0.090187f, -0.188517f, -0.205699f, 0.178547f, -0.089212f, -0.008101f, 0.279349f, 0.051283f, 0.022763f, -0.076966f},
};

const float BIAS1[32] = {
  -0.057348f, 0.207281f, -0.012077f, 0.217571f, 0.171970f, 0.016291f, -0.044558f, -0.104789f, -0.165415f, -0.010653f, -0.076510f, -0.031697f, -0.059509f, 0.000000f, 0.000000f, 0.001867f, 0.000000f, 0.002922f, 0.117512f, -0.049871f, 0.000000f, 0.035155f, -0.086834f, -0.114254f, 0.000000f, 0.000000f, -0.127548f, 0.000000f, -0.005161f, -0.039169f, 0.000000f, -0.031016f
};

// Layer 2: Dense(32) -> Output(10)
const float W2[32][10] = {
  {-0.315475f, 0.227603f, 0.339413f, -0.082552f, 0.310189f, 0.374880f, 0.055061f, -0.080108f, 0.179675f, -0.243315f},
  {0.240870f, 0.430987f, 0.517591f, 0.253382f, 0.224471f, -0.066261f, 0.018155f, 0.157773f, 0.288269f, 0.468627f},
  {-0.121814f, -0.310386f, -0.163946f, -0.279283f, -0.129899f, -0.126241f, -0.189649f, -0.211326f, -0.276095f, -0.179201f},
  {0.069905f, 0.391188f, 0.170110f, 0.398898f, 0.036096f, 0.133793f, 0.020422f, 0.336872f, 0.062972f, 0.415744f},
  {0.061225f, 0.246336f, -0.087802f, -0.069700f, 0.265937f, 0.430618f, 0.511905f, 0.112396f, 0.159596f, -0.096590f},
  {-0.074547f, 0.102878f, -0.158422f, -0.044144f, -0.154526f, 0.258980f, 0.212199f, -0.128348f, 0.034296f, -0.013341f},
  {0.076114f, -0.333487f, 0.011730f, -0.023023f, 0.154334f, 0.345527f, -0.292804f, 0.359616f, -0.063241f, 0.035073f},
  {-0.118322f, -0.247624f, 0.367017f, -0.156950f, 0.039741f, -0.139135f, -0.174079f, 0.334439f, -0.183934f, 0.048842f},
  {-0.109489f, 0.013212f, -0.163732f, -0.006490f, -0.114646f, 0.104095f, -0.017605f, 0.037055f, -0.100027f, -0.060932f},
  {-0.344286f, 0.003712f, -0.266646f, -0.138888f, 0.076887f, 0.102460f, -0.032463f, 0.184216f, 0.084067f, -0.064062f},
  {-0.217389f, -0.203370f, -0.006003f, 0.064661f, 0.367169f, 0.082663f, -0.008905f, 0.176762f, 0.182680f, 0.153611f},
  {-0.158759f, 0.260241f, 0.154863f, -0.104442f, -0.108654f, -0.323133f, -0.327224f, 0.327772f, -0.170972f, 0.156056f},
  {-0.120759f, -0.285770f, 0.034046f, 0.180628f, -0.008660f, 0.130916f, -0.203516f, -0.199769f, -0.248457f, 0.263971f},
  {-0.358905f, -0.369539f, -0.004818f, 0.377688f, 0.007330f, 0.278585f, 0.308037f, -0.084397f, 0.346327f, 0.200015f},
  {-0.071398f, 0.315044f, -0.104232f, 0.047938f, -0.127067f, -0.290106f, -0.370491f, -0.307037f, 0.195750f, -0.133218f},
  {0.147683f, -0.198386f, 0.064355f, -0.130342f, 0.395108f, 0.194363f, 0.474417f, -0.014157f, 0.226158f, -0.143046f},
  {-0.193515f, -0.365485f, 0.326227f, -0.361732f, 0.164673f, -0.208018f, 0.122239f, 0.346806f, -0.305077f, -0.013171f},
  {-0.018629f, 0.059307f, -0.031334f, -0.031179f, 0.034930f, -0.182861f, 0.039325f, -0.024776f, -0.111989f, -0.019601f},
  {0.393301f, -0.101615f, 0.157403f, 0.315218f, 0.141628f, 0.359643f, 0.131953f, 0.266961f, 0.223847f, 0.088906f},
  {-0.205105f, 0.200241f, -0.002221f, 0.177441f, 0.273781f, -0.130386f, -0.014945f, -0.123366f, -0.370077f, 0.161035f},
  {-0.037550f, 0.332942f, 0.021648f, 0.209188f, 0.338397f, 0.026868f, -0.345076f, 0.284056f, -0.349970f, 0.189002f},
  {-0.017444f, -0.021653f, -0.077565f, 0.079321f, 0.047678f, -0.066250f, 0.008678f, 0.114983f, 0.148309f, -0.006903f},
  {-0.118843f, 0.106659f, -0.173430f, 0.143180f, 0.217381f, -0.012779f, 0.177167f, 0.196889f, 0.208076f, 0.212317f},
  {-0.020881f, -0.033809f, -0.042991f, 0.168535f, 0.060106f, 0.030572f, 0.204777f, 0.091756f, 0.187733f, 0.008589f},
  {-0.106668f, -0.073637f, 0.188817f, -0.226974f, 0.078699f, -0.160451f, 0.234287f, 0.225018f, 0.313277f, 0.228849f},
  {-0.143590f, 0.369338f, -0.321451f, -0.048639f, -0.297367f, -0.132921f, -0.287606f, 0.128743f, 0.345803f, -0.375989f},
  {-0.016629f, 0.119254f, 0.087479f, -0.010816f, 0.063773f, -0.103394f, 0.002933f, -0.113845f, -0.041935f, -0.097132f},
  {-0.216407f, 0.349914f, 0.347744f, -0.331751f, 0.061545f, -0.021630f, 0.028743f, -0.302305f, 0.186717f, -0.034506f},
  {-0.117820f, -0.171613f, 0.218393f, -0.160542f, -0.230854f, -0.347395f, -0.233853f, -0.002452f, -0.349445f, 0.280812f},
  {0.281380f, -0.314596f, -0.073313f, 0.013954f, 0.230987f, -0.109815f, -0.055413f, -0.021575f, -0.143342f, 0.096887f},
  {0.296104f, -0.280347f, -0.188409f, 0.262244f, 0.077714f, 0.065327f, 0.174656f, 0.185945f, -0.243147f, -0.340756f},
  {0.281636f, -0.271650f, 0.162002f, 0.050963f, -0.167422f, -0.147109f, 0.228791f, -0.234907f, 0.085871f, 0.089866f},
};

const float BIAS2[10] = {
  0.309472f, 0.378804f, 0.267014f, 0.274834f, 0.263499f, 0.326303f, 0.406282f, 0.391712f, 0.203709f, 0.311142f
};

#endif // NEURAL_WEIGHTS_H
